digraph Tree {
node [shape=box, fontname="helvetica"] ;
edge [fontname="helvetica"] ;
0 [label="x[6] <= 202.5\nsquared_error = 453293780299.399\nsamples = 6830\nvalue = 1077603.783"] ;
1 [label="x[7] <= 1949.5\nsquared_error = 232816295087.74\nsamples = 5746\nvalue = 931628.669"] ;
0 -> 1 [labeldistance=2.5, labelangle=45, headlabel="True"] ;
3 [label="x[6] <= 125.5\nsquared_error = 255698427277.957\nsamples = 1516\nvalue = 1309618.625"] ;
1 -> 3 ;
11 [label="x[2] <= 2.5\nsquared_error = 153275910193.466\nsamples = 822\nvalue = 1095995.937"] ;
3 -> 11 ;
43 [label="x[5] <= 68.5\nsquared_error = 102081101492.857\nsamples = 463\nvalue = 983562.549"] ;
11 -> 43 ;
75 [label="x[6] <= 71.5\nsquared_error = 53266099125.417\nsamples = 83\nvalue = 708292.169"] ;
43 -> 75 ;
255 [label="x[6] <= 63.0\nsquared_error = 29266816290.131\nsamples = 29\nvalue = 545948.276"] ;
75 -> 255 ;
397 [label="squared_error = 14917282222.222\nsamples = 15\nvalue = 462033.333"] ;
255 -> 397 ;
398 [label="squared_error = 29013015306.122\nsamples = 14\nvalue = 635857.143"] ;
255 -> 398 ;
256 [label="x[8] <= -37.794\nsquared_error = 44399533028.978\nsamples = 54\nvalue = 795476.852"] ;
75 -> 256 ;
351 [label="x[6] <= 95.5\nsquared_error = 41868134444.444\nsamples = 45\nvalue = 835016.667"] ;
256 -> 351 ;
363 [label="squared_error = 15091193938.606\nsamples = 31\nvalue = 772959.677"] ;
351 -> 363 ;
364 [label="squared_error = 73750530612.245\nsamples = 14\nvalue = 972428.571"] ;
351 -> 364 ;
352 [label="squared_error = 10154617283.951\nsamples = 9\nvalue = 597777.778"] ;
256 -> 352 ;
76 [label="x[9] <= 144.934\nsquared_error = 92577739330.844\nsamples = 380\nvalue = 1043687.395"] ;
43 -> 76 ;
121 [label="x[5] <= 737.5\nsquared_error = 28380853299.08\nsamples = 86\nvalue = 852525.581"] ;
76 -> 121 ;
357 [label="x[6] <= 94.5\nsquared_error = 24225172636.054\nsamples = 84\nvalue = 863121.429"] ;
121 -> 357 ;
361 [label="squared_error = 12372302855.598\nsamples = 43\nvalue = 796539.535"] ;
357 -> 361 ;
362 [label="x[9] <= 144.898\nsquared_error = 27130631766.806\nsamples = 41\nvalue = 932951.22"] ;
357 -> 362 ;
385 [label="squared_error = 23875576388.889\nsamples = 24\nvalue = 865416.667"] ;
362 -> 385 ;
386 [label="squared_error = 16196795847.751\nsamples = 17\nvalue = 1028294.118"] ;
362 -> 386 ;
358 [label="squared_error = 156250000.0\nsamples = 2\nvalue = 407500.0"] ;
121 -> 358 ;
122 [label="x[6] <= 78.5\nsquared_error = 97540186596.202\nsamples = 294\nvalue = 1099605.476"] ;
76 -> 122 ;
145 [label="x[5] <= 276.5\nsquared_error = 49196660155.429\nsamples = 69\nvalue = 916644.928"] ;
122 -> 145 ;
221 [label="x[8] <= -37.82\nsquared_error = 29001089586.777\nsamples = 55\nvalue = 993736.364"] ;
145 -> 221 ;
393 [label="squared_error = 38837501783.591\nsamples = 29\nvalue = 1055844.828"] ;
221 -> 393 ;
394 [label="squared_error = 8928152366.864\nsamples = 26\nvalue = 924461.538"] ;
221 -> 394 ;
222 [label="squared_error = 13464846938.775\nsamples = 14\nvalue = 613785.714"] ;
145 -> 222 ;
146 [label="x[8] <= -37.771\nsquared_error = 98951905625.924\nsamples = 225\nvalue = 1155713.378"] ;
122 -> 146 ;
147 [label="x[5] <= 1094.0\nsquared_error = 99933508265.032\nsamples = 164\nvalue = 1237012.256"] ;
146 -> 147 ;
247 [label="squared_error = 94647628734.806\nsamples = 158\nvalue = 1254189.937"] ;
147 -> 247 ;
248 [label="squared_error = 26741555555.556\nsamples = 6\nvalue = 784666.667"] ;
147 -> 248 ;
148 [label="x[9] <= 144.966\nsquared_error = 30768410911.045\nsamples = 61\nvalue = 937139.344"] ;
146 -> 148 ;
331 [label="squared_error = 11809360000.0\nsamples = 25\nvalue = 830400.0"] ;
148 -> 331 ;
332 [label="squared_error = 30527965084.877\nsamples = 36\nvalue = 1011263.889"] ;
148 -> 332 ;
44 [label="x[9] <= 144.949\nsquared_error = 181971826294.954\nsamples = 359\nvalue = 1241000.557"] ;
11 -> 44 ;
61 [label="x[1] <= 8.95\nsquared_error = 48614041850.084\nsamples = 127\nvalue = 1011106.299"] ;
44 -> 61 ;
251 [label="x[1] <= 4.25\nsquared_error = 40842749920.281\nsamples = 112\nvalue = 1047383.929"] ;
61 -> 251 ;
285 [label="squared_error = 40563589843.75\nsamples = 16\nvalue = 1248687.5"] ;
251 -> 285 ;
286 [label="x[10] <= 7326.0\nsquared_error = 33009779513.889\nsamples = 96\nvalue = 1013833.333"] ;
251 -> 286 ;
349 [label="x[5] <= 844.5\nsquared_error = 30911765662.554\nsamples = 79\nvalue = 1045487.342"] ;
286 -> 349 ;
379 [label="squared_error = 27667322690.664\nsamples = 78\nvalue = 1038698.718"] ;
349 -> 379 ;
380 [label="squared_error = 0.0\nsamples = 1\nvalue = 1575000.0"] ;
349 -> 380 ;
350 [label="squared_error = 16465297577.855\nsamples = 17\nvalue = 866735.294"] ;
286 -> 350 ;
252 [label="squared_error = 23440895555.556\nsamples = 15\nvalue = 740233.333"] ;
61 -> 252 ;
62 [label="x[8] <= -37.776\nsquared_error = 210204608271.217\nsamples = 232\nvalue = 1366847.845"] ;
44 -> 62 ;
69 [label="x[3] <= 1.5\nsquared_error = 222159955087.114\nsamples = 156\nvalue = 1498839.744"] ;
62 -> 69 ;
135 [label="x[7] <= 1942.5\nsquared_error = 183637666346.406\nsamples = 107\nvalue = 1401658.879"] ;
69 -> 135 ;
161 [label="x[9] <= 144.962\nsquared_error = 121618840589.57\nsamples = 105\nvalue = 1379547.619"] ;
135 -> 161 ;
179 [label="squared_error = 152663142857.143\nsamples = 7\nvalue = 1939000.0"] ;
161 -> 179 ;
180 [label="squared_error = 95448306252.603\nsamples = 98\nvalue = 1339586.735"] ;
161 -> 180 ;
162 [label="squared_error = 2066406250000.0\nsamples = 2\nvalue = 2562500.0"] ;
135 -> 162 ;
136 [label="x[2] <= 3.5\nsquared_error = 240623553519.367\nsamples = 49\nvalue = 1711051.02"] ;
69 -> 136 ;
137 [label="x[10] <= 2639.5\nsquared_error = 140298296844.181\nsamples = 39\nvalue = 1574653.846"] ;
136 -> 137 ;
227 [label="squared_error = 0.0\nsamples = 1\nvalue = 2790000.0"] ;
137 -> 227 ;
228 [label="squared_error = 104097293109.418\nsamples = 38\nvalue = 1542671.053"] ;
137 -> 228 ;
138 [label="squared_error = 276366000000.0\nsamples = 10\nvalue = 2243000.0"] ;
136 -> 138 ;
70 [label="x[2] <= 3.5\nsquared_error = 76500557470.568\nsamples = 76\nvalue = 1095917.105"] ;
62 -> 70 ;
233 [label="x[8] <= -37.743\nsquared_error = 46401232042.771\nsamples = 67\nvalue = 1045674.627"] ;
70 -> 233 ;
307 [label="x[9] <= 144.973\nsquared_error = 43631612086.777\nsamples = 44\nvalue = 1114613.636"] ;
233 -> 307 ;
309 [label="squared_error = 30544456597.222\nsamples = 24\nvalue = 995708.333"] ;
307 -> 309 ;
310 [label="squared_error = 22010635000.0\nsamples = 20\nvalue = 1257300.0"] ;
307 -> 310 ;
308 [label="x[4] <= 4.5\nsquared_error = 25214519054.82\nsamples = 23\nvalue = 913791.304"] ;
233 -> 308 ;
391 [label="squared_error = 15126801735.537\nsamples = 22\nvalue = 891690.909"] ;
308 -> 391 ;
392 [label="squared_error = 0.0\nsamples = 1\nvalue = 1400000.0"] ;
308 -> 392 ;
234 [label="squared_error = 141884802469.136\nsamples = 9\nvalue = 1469944.444"] ;
70 -> 234 ;
12 [label="x[8] <= -37.812\nsquared_error = 258939576757.234\nsamples = 694\nvalue = 1562641.464"] ;
3 -> 12 ;
25 [label="x[9] <= 144.896\nsquared_error = 271888530855.029\nsamples = 351\nvalue = 1760993.413"] ;
12 -> 25 ;
71 [label="x[5] <= 851.5\nsquared_error = 122725680555.555\nsamples = 36\nvalue = 1306666.667"] ;
25 -> 71 ;
217 [label="x[6] <= 159.0\nsquared_error = 73778488754.325\nsamples = 34\nvalue = 1253235.294"] ;
71 -> 217 ;
301 [label="squared_error = 26214450113.378\nsamples = 21\nvalue = 1141952.381"] ;
217 -> 301 ;
302 [label="squared_error = 98292615384.615\nsamples = 13\nvalue = 1433000.0"] ;
217 -> 302 ;
218 [label="squared_error = 81225000000.0\nsamples = 2\nvalue = 2215000.0"] ;
71 -> 218 ;
72 [label="x[8] <= -37.866\nsquared_error = 262649676493.646\nsamples = 315\nvalue = 1812916.47"] ;
25 -> 72 ;
79 [label="x[6] <= 159.5\nsquared_error = 182969008550.387\nsamples = 134\nvalue = 1632437.97"] ;
72 -> 79 ;
117 [label="x[3] <= 3.5\nsquared_error = 117542947997.85\nsamples = 61\nvalue = 1440377.049"] ;
79 -> 117 ;
219 [label="x[10] <= 2677.5\nsquared_error = 92617094722.222\nsamples = 60\nvalue = 1419383.333"] ;
117 -> 219 ;
265 [label="squared_error = 289852687500.0\nsamples = 4\nvalue = 936250.0"] ;
219 -> 265 ;
266 [label="squared_error = 60665229591.837\nsamples = 56\nvalue = 1453892.857"] ;
219 -> 266 ;
220 [label="squared_error = 0.0\nsamples = 1\nvalue = 2700000.0"] ;
117 -> 220 ;
118 [label="x[9] <= 145.004\nsquared_error = 181059581189.11\nsamples = 73\nvalue = 1792927.233"] ;
79 -> 118 ;
119 [label="x[5] <= 512.0\nsquared_error = 227681747500.0\nsamples = 20\nvalue = 2187550.0"] ;
118 -> 119 ;
175 [label="squared_error = 41972240000.0\nsamples = 10\nvalue = 1837600.0"] ;
119 -> 175 ;
176 [label="squared_error = 168461250000.0\nsamples = 10\nvalue = 2537500.0"] ;
119 -> 176 ;
120 [label="x[8] <= -37.885\nsquared_error = 82525902422.886\nsamples = 53\nvalue = 1644012.981"] ;
118 -> 120 ;
305 [label="squared_error = 77949315677.598\nsamples = 45\nvalue = 1598681.956"] ;
120 -> 305 ;
306 [label="squared_error = 31692000000.0\nsamples = 8\nvalue = 1899000.0"] ;
120 -> 306 ;
80 [label="x[2] <= 3.5\nsquared_error = 279672666203.717\nsamples = 181\nvalue = 1946530.387"] ;
72 -> 80 ;
107 [label="x[9] <= 144.984\nsquared_error = 206433902482.373\nsamples = 131\nvalue = 1844954.198"] ;
80 -> 107 ;
205 [label="x[9] <= 144.949\nsquared_error = 235405885802.469\nsamples = 36\nvalue = 2041944.444"] ;
107 -> 205 ;
207 [label="squared_error = 67054098765.432\nsamples = 9\nvalue = 1556111.111"] ;
205 -> 207 ;
208 [label="squared_error = 186619135802.469\nsamples = 27\nvalue = 2203888.889"] ;
205 -> 208 ;
206 [label="x[5] <= 346.5\nsquared_error = 175177469972.299\nsamples = 95\nvalue = 1770305.263"] ;
107 -> 206 ;
213 [label="squared_error = 95833852195.563\nsamples = 47\nvalue = 1630159.574"] ;
206 -> 213 ;
214 [label="squared_error = 214805493815.104\nsamples = 48\nvalue = 1907531.25"] ;
206 -> 214 ;
108 [label="x[1] <= 9.1\nsquared_error = 373700824400.0\nsamples = 50\nvalue = 2212660.0"] ;
80 -> 108 ;
167 [label="x[3] <= 3.5\nsquared_error = 400979421433.268\nsamples = 39\nvalue = 2331410.256"] ;
108 -> 167 ;
169 [label="squared_error = 281571952908.586\nsamples = 38\nvalue = 2273684.211"] ;
167 -> 169 ;
170 [label="squared_error = 0.0\nsamples = 1\nvalue = 4525000.0"] ;
167 -> 170 ;
168 [label="squared_error = 49728231404.959\nsamples = 11\nvalue = 1791636.364"] ;
108 -> 168 ;
26 [label="x[6] <= 157.5\nsquared_error = 164227314622.755\nsamples = 343\nvalue = 1359663.23"] ;
12 -> 26 ;
65 [label="x[1] <= 9.8\nsquared_error = 89025741172.308\nsamples = 198\nvalue = 1225726.707"] ;
26 -> 65 ;
157 [label="x[9] <= 145.043\nsquared_error = 79472101995.372\nsamples = 183\nvalue = 1259586.82"] ;
65 -> 157 ;
159 [label="x[9] <= 144.964\nsquared_error = 65245558163.287\nsamples = 175\nvalue = 1232967.931"] ;
157 -> 159 ;
231 [label="x[2] <= 2.5\nsquared_error = 51774191036.668\nsamples = 94\nvalue = 1148521.277"] ;
159 -> 231 ;
287 [label="squared_error = 13487222222.222\nsamples = 6\nvalue = 808666.667"] ;
231 -> 287 ;
288 [label="squared_error = 45972650180.785\nsamples = 88\nvalue = 1171693.182"] ;
231 -> 288 ;
232 [label="x[8] <= -37.756\nsquared_error = 62999274398.951\nsamples = 81\nvalue = 1330967.753"] ;
159 -> 232 ;
263 [label="squared_error = 51381822711.446\nsamples = 63\nvalue = 1390879.175"] ;
232 -> 263 ;
264 [label="squared_error = 47127645061.729\nsamples = 18\nvalue = 1121277.778"] ;
232 -> 264 ;
160 [label="squared_error = 36118359375.0\nsamples = 8\nvalue = 1841875.0"] ;
157 -> 160 ;
158 [label="squared_error = 20946615555.556\nsamples = 15\nvalue = 812633.333"] ;
65 -> 158 ;
66 [label="x[1] <= 3.8\nsquared_error = 208970641775.981\nsamples = 145\nvalue = 1542555.862"] ;
26 -> 66 ;
97 [label="x[5] <= 431.5\nsquared_error = 288033163950.617\nsamples = 18\nvalue = 2056477.778"] ;
66 -> 97 ;
153 [label="squared_error = 125340410400.0\nsamples = 15\nvalue = 1876440.0"] ;
97 -> 153 ;
154 [label="squared_error = 129088888888.889\nsamples = 3\nvalue = 2956666.667"] ;
97 -> 154 ;
98 [label="x[9] <= 145.021\nsquared_error = 155025636183.272\nsamples = 127\nvalue = 1469716.535"] ;
66 -> 98 ;
109 [label="x[1] <= 7.25\nsquared_error = 101769794309.881\nsamples = 102\nvalue = 1376098.039"] ;
98 -> 109 ;
197 [label="x[10] <= 11284.0\nsquared_error = 72124641093.474\nsamples = 63\nvalue = 1485222.222"] ;
109 -> 197 ;
289 [label="squared_error = 67170048945.376\nsamples = 43\nvalue = 1411558.14"] ;
197 -> 289 ;
290 [label="squared_error = 46026740000.0\nsamples = 20\nvalue = 1643600.0"] ;
197 -> 290 ;
198 [label="x[6] <= 164.5\nsquared_error = 99348211374.096\nsamples = 39\nvalue = 1199820.513"] ;
109 -> 198 ;
271 [label="squared_error = 154449000000.0\nsamples = 2\nvalue = 538000.0"] ;
198 -> 271 ;
272 [label="squared_error = 71413984295.106\nsamples = 37\nvalue = 1235594.595"] ;
198 -> 272 ;
110 [label="x[1] <= 7.4\nsquared_error = 190654537600.0\nsamples = 25\nvalue = 1851680.0"] ;
98 -> 110 ;
223 [label="squared_error = 107029580246.914\nsamples = 9\nvalue = 2184555.556"] ;
110 -> 223 ;
224 [label="squared_error = 140305371093.75\nsamples = 16\nvalue = 1664437.5"] ;
110 -> 224 ;
4 [label="x[6] <= 106.95\nsquared_error = 155057908888.17\nsamples = 4230\nvalue = 796159.928"] ;
1 -> 4 ;
9 [label="x[0] <= 2.5\nsquared_error = 66518755336.97\nsamples = 1868\nvalue = 601494.317"] ;
4 -> 9 ;
35 [label="x[6] <= 71.5\nsquared_error = 35786921701.019\nsamples = 1430\nvalue = 548523.871"] ;
9 -> 35 ;
41 [label="x[0] <= 1.5\nsquared_error = 16018389574.285\nsamples = 681\nvalue = 446303.106"] ;
35 -> 41 ;
189 [label="x[6] <= 48.5\nsquared_error = 11685255992.39\nsamples = 290\nvalue = 381537.241"] ;
41 -> 189 ;
313 [label="squared_error = 4543340248.235\nsamples = 151\nvalue = 338049.669"] ;
189 -> 313 ;
314 [label="x[1] <= 6.35\nsquared_error = 15157507981.989\nsamples = 139\nvalue = 428779.137"] ;
189 -> 314 ;
383 [label="squared_error = 15581470964.187\nsamples = 99\nvalue = 457245.455"] ;
314 -> 383 ;
384 [label="squared_error = 7138844375.0\nsamples = 40\nvalue = 358325.0"] ;
314 -> 384 ;
190 [label="x[9] <= 144.942\nsquared_error = 13813662165.695\nsamples = 391\nvalue = 494339.169"] ;
41 -> 190 ;
277 [label="squared_error = 5913015864.187\nsamples = 106\nvalue = 419444.34"] ;
190 -> 277 ;
278 [label="x[6] <= 6.0\nsquared_error = 13889970603.226\nsamples = 285\nvalue = 522194.789"] ;
190 -> 278 ;
323 [label="squared_error = 31829653863.938\nsamples = 8\nvalue = 775616.75"] ;
278 -> 323 ;
324 [label="x[8] <= -37.732\nsquared_error = 11463481642.321\nsamples = 277\nvalue = 514875.744"] ;
278 -> 324 ;
337 [label="squared_error = 10294223988.271\nsamples = 258\nvalue = 526021.632"] ;
324 -> 337 ;
338 [label="squared_error = 2747196675.9\nsamples = 19\nvalue = 363526.316"] ;
324 -> 338 ;
42 [label="x[6] <= 91.5\nsquared_error = 35622364391.352\nsamples = 749\nvalue = 641464.246"] ;
35 -> 42 ;
131 [label="x[9] <= 144.929\nsquared_error = 21235279510.298\nsamples = 530\nvalue = 597183.475"] ;
42 -> 131 ;
237 [label="squared_error = 11876093775.161\nsamples = 117\nvalue = 502745.248"] ;
131 -> 237 ;
238 [label="x[8] <= -37.733\nsquared_error = 20644340596.557\nsamples = 413\nvalue = 623937.162"] ;
131 -> 238 ;
259 [label="x[6] <= 84.5\nsquared_error = 18773256337.4\nsamples = 371\nvalue = 641603.229"] ;
238 -> 259 ;
317 [label="squared_error = 17165250365.916\nsamples = 262\nvalue = 616587.015"] ;
259 -> 317 ;
318 [label="squared_error = 17518425774.346\nsamples = 109\nvalue = 701733.945"] ;
259 -> 318 ;
260 [label="squared_error = 10063774411.848\nsamples = 42\nvalue = 467886.905"] ;
238 -> 260 ;
132 [label="x[7] <= 1952.5\nsquared_error = 54211123636.341\nsamples = 219\nvalue = 748627.753"] ;
42 -> 132 ;
199 [label="x[6] <= 104.5\nsquared_error = 93885260724.852\nsamples = 26\nvalue = 1004865.385"] ;
132 -> 199 ;
267 [label="x[9] <= 145.013\nsquared_error = 58083750400.0\nsamples = 25\nvalue = 965860.0"] ;
199 -> 267 ;
293 [label="squared_error = 16242862222.222\nsamples = 15\nvalue = 827933.333"] ;
267 -> 293 ;
294 [label="squared_error = 49505962500.0\nsamples = 10\nvalue = 1172750.0"] ;
267 -> 294 ;
268 [label="squared_error = 0.0\nsamples = 1\nvalue = 1980000.0"] ;
199 -> 268 ;
200 [label="x[8] <= -37.795\nsquared_error = 38829773846.917\nsamples = 193\nvalue = 714108.694"] ;
132 -> 200 ;
243 [label="x[5] <= 228.5\nsquared_error = 43852649044.802\nsamples = 111\nvalue = 784554.865"] ;
200 -> 243 ;
347 [label="squared_error = 29480751288.889\nsamples = 75\nvalue = 740426.667"] ;
243 -> 347 ;
348 [label="squared_error = 61285418428.626\nsamples = 36\nvalue = 876488.611"] ;
243 -> 348 ;
244 [label="x[1] <= 9.8\nsquared_error = 16219223821.842\nsamples = 82\nvalue = 618748.634"] ;
200 -> 244 ;
377 [label="squared_error = 13029380208.333\nsamples = 36\nvalue = 687958.333"] ;
244 -> 377 ;
378 [label="squared_error = 12033190172.249\nsamples = 46\nvalue = 564584.522"] ;
244 -> 378 ;
36 [label="x[0] <= 4.5\nsquared_error = 127784310742.856\nsamples = 438\nvalue = 774434.361"] ;
9 -> 36 ;
55 [label="x[8] <= -37.734\nsquared_error = 80617249616.2\nsamples = 431\nvalue = 754019.142"] ;
36 -> 55 ;
99 [label="x[9] <= 144.877\nsquared_error = 95073815330.546\nsamples = 279\nvalue = 835227.778"] ;
55 -> 99 ;
143 [label="x[6] <= 23.5\nsquared_error = 24526304822.222\nsamples = 60\nvalue = 636413.333"] ;
99 -> 143 ;
373 [label="squared_error = 91506250000.0\nsamples = 2\nvalue = 1032500.0"] ;
143 -> 373 ;
374 [label="squared_error = 16620290749.108\nsamples = 58\nvalue = 622755.172"] ;
143 -> 374 ;
144 [label="x[5] <= 5009.5\nsquared_error = 100605585712.871\nsamples = 219\nvalue = 889697.489"] ;
99 -> 144 ;
171 [label="x[2] <= 3.5\nsquared_error = 89703954382.26\nsamples = 218\nvalue = 882494.266"] ;
144 -> 171 ;
177 [label="squared_error = 73374496157.049\nsamples = 205\nvalue = 856301.22"] ;
171 -> 177 ;
178 [label="squared_error = 165782556213.018\nsamples = 13\nvalue = 1295538.462"] ;
171 -> 178 ;
172 [label="squared_error = 0.0\nsamples = 1\nvalue = 2460000.0"] ;
144 -> 172 ;
100 [label="x[8] <= -37.689\nsquared_error = 19757776505.8\nsamples = 152\nvalue = 604958.553"] ;
55 -> 100 ;
295 [label="x[5] <= 405.0\nsquared_error = 17280191852.878\nsamples = 114\nvalue = 643975.439"] ;
100 -> 295 ;
343 [label="squared_error = 14626264299.803\nsamples = 39\nvalue = 555807.692"] ;
295 -> 343 ;
344 [label="squared_error = 12516019086.222\nsamples = 75\nvalue = 689822.667"] ;
295 -> 344 ;
296 [label="squared_error = 8922721779.778\nsamples = 38\nvalue = 487907.895"] ;
100 -> 296 ;
56 [label="squared_error = 1426231387755.102\nsamples = 7\nvalue = 2031428.571"] ;
36 -> 56 ;
10 [label="x[8] <= -37.75\nsquared_error = 171409024246.802\nsamples = 2362\nvalue = 950112.24"] ;
4 -> 10 ;
15 [label="x[9] <= 144.885\nsquared_error = 196734629791.512\nsamples = 1596\nvalue = 1061323.028"] ;
10 -> 15 ;
19 [label="x[1] <= 13.4\nsquared_error = 38491512679.878\nsamples = 312\nvalue = 711028.526"] ;
15 -> 19 ;
139 [label="x[8] <= -37.81\nsquared_error = 33756255117.086\nsamples = 203\nvalue = 784397.537"] ;
19 -> 139 ;
253 [label="x[5] <= 181.5\nsquared_error = 38756907173.438\nsamples = 80\nvalue = 880158.75"] ;
139 -> 253 ;
299 [label="squared_error = 10727018224.852\nsamples = 13\nvalue = 669784.615"] ;
253 -> 299 ;
300 [label="x[5] <= 631.0\nsquared_error = 33942130095.79\nsamples = 67\nvalue = 920977.612"] ;
253 -> 300 ;
371 [label="squared_error = 28749493542.73\nsamples = 56\nvalue = 890044.643"] ;
300 -> 371 ;
372 [label="squared_error = 30707157024.793\nsamples = 11\nvalue = 1078454.545"] ;
300 -> 372 ;
254 [label="x[5] <= 288.5\nsquared_error = 20660173061.009\nsamples = 123\nvalue = 722113.821"] ;
139 -> 254 ;
329 [label="squared_error = 8903190146.025\nsamples = 43\nvalue = 635609.302"] ;
254 -> 329 ;
330 [label="x[9] <= 144.864\nsquared_error = 20795527150.0\nsamples = 80\nvalue = 768610.0"] ;
254 -> 330 ;
365 [label="squared_error = 17519797482.164\nsamples = 58\nvalue = 727263.793"] ;
330 -> 365 ;
366 [label="squared_error = 13042862086.777\nsamples = 22\nvalue = 877613.636"] ;
330 -> 366 ;
140 [label="x[6] <= 200.5\nsquared_error = 18614280752.462\nsamples = 109\nvalue = 574387.156"] ;
19 -> 140 ;
325 [label="x[9] <= 144.729\nsquared_error = 11133980482.138\nsamples = 107\nvalue = 565076.636"] ;
140 -> 325 ;
395 [label="squared_error = 6905767781.622\nsamples = 51\nvalue = 516425.49"] ;
325 -> 395 ;
396 [label="squared_error = 10865937420.281\nsamples = 56\nvalue = 609383.929"] ;
325 -> 396 ;
326 [label="squared_error = 166056250000.0\nsamples = 2\nvalue = 1072500.0"] ;
140 -> 326 ;
20 [label="x[1] <= 21.85\nsquared_error = 198124635951.069\nsamples = 1284\nvalue = 1146441.318"] ;
15 -> 20 ;
29 [label="x[5] <= 612.5\nsquared_error = 199046843593.304\nsamples = 1152\nvalue = 1190108.901"] ;
20 -> 29 ;
31 [label="x[6] <= 159.5\nsquared_error = 104092725912.465\nsamples = 796\nvalue = 1095618.347"] ;
29 -> 31 ;
47 [label="x[3] <= 4.5\nsquared_error = 85743516838.642\nsamples = 568\nvalue = 1016542.077"] ;
31 -> 47 ;
103 [label="squared_error = 76843104228.387\nsamples = 567\nvalue = 1012550.088"] ;
47 -> 103 ;
104 [label="squared_error = 0.0\nsamples = 1\nvalue = 3280000.0"] ;
47 -> 104 ;
48 [label="x[1] <= 11.55\nsquared_error = 95419174536.873\nsamples = 228\nvalue = 1292615.368"] ;
31 -> 48 ;
123 [label="squared_error = 100139822794.802\nsamples = 139\nvalue = 1396431.345"] ;
48 -> 123 ;
124 [label="squared_error = 44924563205.907\nsamples = 89\nvalue = 1130475.809"] ;
48 -> 124 ;
32 [label="x[1] <= 11.75\nsquared_error = 346758521483.142\nsamples = 356\nvalue = 1401385.534"] ;
29 -> 32 ;
87 [label="x[7] <= 1977.5\nsquared_error = 299765334048.576\nsamples = 148\nvalue = 1555020.27"] ;
32 -> 87 ;
89 [label="squared_error = 283271212546.01\nsamples = 113\nvalue = 1669269.912"] ;
87 -> 89 ;
90 [label="squared_error = 174815296734.694\nsamples = 35\nvalue = 1186157.143"] ;
87 -> 90 ;
88 [label="x[10] <= 5439.0\nsquared_error = 351450877818.452\nsamples = 208\nvalue = 1292068.51"] ;
32 -> 88 ;
191 [label="squared_error = 41090720485.291\nsamples = 92\nvalue = 1180834.239"] ;
88 -> 191 ;
192 [label="squared_error = 580002651512.336\nsamples = 116\nvalue = 1380288.793"] ;
88 -> 192 ;
30 [label="x[9] <= 145.11\nsquared_error = 28198231825.742\nsamples = 132\nvalue = 765342.409"] ;
20 -> 30 ;
239 [label="squared_error = 0.0\nsamples = 1\nvalue = 1905000.0"] ;
30 -> 239 ;
240 [label="x[6] <= 175.5\nsquared_error = 18423149041.112\nsamples = 131\nvalue = 756642.733"] ;
30 -> 240 ;
355 [label="x[9] <= 145.135\nsquared_error = 15378047870.781\nsamples = 102\nvalue = 726796.059"] ;
240 -> 355 ;
375 [label="squared_error = 8503473922.902\nsamples = 21\nvalue = 837380.952"] ;
355 -> 375 ;
376 [label="squared_error = 13167880558.805\nsamples = 81\nvalue = 698125.901"] ;
355 -> 376 ;
356 [label="squared_error = 14979890606.421\nsamples = 29\nvalue = 861620.69"] ;
240 -> 356 ;
16 [label="x[8] <= -37.711\nsquared_error = 39181742492.897\nsamples = 766\nvalue = 718398.903"] ;
10 -> 16 ;
93 [label="x[5] <= 605.5\nsquared_error = 36260766866.978\nsamples = 401\nvalue = 800861.746"] ;
16 -> 93 ;
165 [label="x[1] <= 11.85\nsquared_error = 23916923292.336\nsamples = 265\nvalue = 743455.57"] ;
93 -> 165 ;
273 [label="x[6] <= 146.5\nsquared_error = 24814762610.619\nsamples = 168\nvalue = 787750.155"] ;
165 -> 273 ;
279 [label="x[5] <= 220.0\nsquared_error = 18099066131.32\nsamples = 118\nvalue = 742684.322"] ;
273 -> 279 ;
341 [label="squared_error = 13895544981.258\nsamples = 49\nvalue = 668469.388"] ;
279 -> 341 ;
342 [label="squared_error = 14395154956.942\nsamples = 69\nvalue = 795387.681"] ;
279 -> 342 ;
280 [label="squared_error = 24559349487.29\nsamples = 50\nvalue = 894105.52"] ;
273 -> 280 ;
274 [label="x[9] <= 144.83\nsquared_error = 13078376568.413\nsamples = 97\nvalue = 666739.175"] ;
165 -> 274 ;
381 [label="squared_error = 2444475260.417\nsamples = 24\nvalue = 573187.5"] ;
274 -> 381 ;
382 [label="squared_error = 12751135955.741\nsamples = 73\nvalue = 697495.89"] ;
274 -> 382 ;
166 [label="x[1] <= 11.3\nsquared_error = 41379663207.909\nsamples = 136\nvalue = 912719.368"] ;
93 -> 166 ;
225 [label="x[8] <= -37.741\nsquared_error = 44415195976.01\nsamples = 57\nvalue = 1037491.246"] ;
166 -> 225 ;
333 [label="squared_error = 52116089965.398\nsamples = 17\nvalue = 1178294.118"] ;
225 -> 333 ;
334 [label="x[6] <= 156.0\nsquared_error = 29135528617.524\nsamples = 40\nvalue = 977650.025"] ;
225 -> 334 ;
387 [label="squared_error = 23040786982.249\nsamples = 26\nvalue = 918461.538"] ;
334 -> 387 ;
388 [label="squared_error = 21865518102.107\nsamples = 14\nvalue = 1087571.5"] ;
334 -> 388 ;
226 [label="x[9] <= 144.859\nsquared_error = 19852294682.638\nsamples = 79\nvalue = 822694.089"] ;
166 -> 226 ;
315 [label="squared_error = 6410812500.0\nsamples = 16\nvalue = 652250.0"] ;
226 -> 315 ;
316 [label="squared_error = 14014127194.789\nsamples = 63\nvalue = 865981.476"] ;
226 -> 316 ;
94 [label="x[5] <= 693.5\nsquared_error = 26712332321.261\nsamples = 365\nvalue = 627802.74"] ;
16 -> 94 ;
187 [label="x[1] <= 20.55\nsquared_error = 19058096294.188\nsamples = 278\nvalue = 584971.223"] ;
94 -> 187 ;
257 [label="x[5] <= 476.5\nsquared_error = 17229011594.899\nsamples = 214\nvalue = 620490.654"] ;
187 -> 257 ;
303 [label="squared_error = 9117169101.534\nsamples = 74\nvalue = 544418.919"] ;
257 -> 303 ;
304 [label="x[9] <= 145.075\nsquared_error = 16841113571.429\nsamples = 140\nvalue = 660700.0"] ;
257 -> 304 ;
353 [label="squared_error = 10291723584.0\nsamples = 125\nvalue = 641696.0"] ;
304 -> 353 ;
354 [label="squared_error = 43329762222.222\nsamples = 15\nvalue = 819066.667"] ;
304 -> 354 ;
258 [label="squared_error = 6849661865.234\nsamples = 64\nvalue = 466203.125"] ;
187 -> 258 ;
188 [label="x[1] <= 18.8\nsquared_error = 26576871647.51\nsamples = 87\nvalue = 764666.667"] ;
94 -> 188 ;
291 [label="x[5] <= 841.0\nsquared_error = 19064509469.697\nsamples = 66\nvalue = 816250.0"] ;
188 -> 291 ;
369 [label="squared_error = 12881205576.56\nsamples = 46\nvalue = 769391.304"] ;
291 -> 369 ;
370 [label="squared_error = 16620461875.0\nsamples = 20\nvalue = 924025.0"] ;
291 -> 370 ;
292 [label="squared_error = 15541926303.855\nsamples = 21\nvalue = 602547.619"] ;
188 -> 292 ;
2 [label="x[1] <= 11.3\nsquared_error = 910306110369.854\nsamples = 1084\nvalue = 1851379.616"] ;
0 -> 2 [labeldistance=2.5, labelangle=-45, headlabel="False"] ;
5 [label="x[8] <= -37.795\nsquared_error = 967191907808.735\nsamples = 678\nvalue = 2176891.428"] ;
2 -> 5 ;
7 [label="x[6] <= 271.5\nsquared_error = 1042770032117.478\nsamples = 424\nvalue = 2514906.575"] ;
5 -> 7 ;
13 [label="x[9] <= 144.946\nsquared_error = 475577036594.919\nsamples = 237\nvalue = 2137774.262"] ;
7 -> 13 ;
27 [label="x[9] <= 144.886\nsquared_error = 242141082986.318\nsamples = 41\nvalue = 1475951.22"] ;
13 -> 27 ;
141 [label="x[2] <= 3.5\nsquared_error = 81642132653.061\nsamples = 21\nvalue = 1206714.286"] ;
27 -> 141 ;
359 [label="squared_error = 43391062500.0\nsamples = 8\nvalue = 1031000.0"] ;
141 -> 359 ;
360 [label="squared_error = 74488437869.823\nsamples = 13\nvalue = 1314846.154"] ;
141 -> 360 ;
142 [label="x[6] <= 208.0\nsquared_error = 254633427500.0\nsamples = 20\nvalue = 1758650.0"] ;
27 -> 142 ;
185 [label="squared_error = 50625000000.0\nsamples = 2\nvalue = 775000.0"] ;
142 -> 185 ;
186 [label="x[7] <= 1915.0\nsquared_error = 157848274691.358\nsamples = 18\nvalue = 1867944.444"] ;
142 -> 186 ;
241 [label="squared_error = 31667805555.556\nsamples = 6\nvalue = 2248833.333"] ;
186 -> 241 ;
242 [label="squared_error = 112131250000.0\nsamples = 12\nvalue = 1677500.0"] ;
186 -> 242 ;
28 [label="x[7] <= 1919.5\nsquared_error = 413617194053.259\nsamples = 196\nvalue = 2276216.837"] ;
13 -> 28 ;
51 [label="x[5] <= 659.0\nsquared_error = 620701027873.896\nsamples = 51\nvalue = 2685960.784"] ;
28 -> 51 ;
81 [label="x[0] <= 3.5\nsquared_error = 409822918788.58\nsamples = 36\nvalue = 2446930.556"] ;
51 -> 81 ;
201 [label="squared_error = 183014666666.666\nsamples = 9\nvalue = 2045666.667"] ;
81 -> 201 ;
202 [label="x[9] <= 144.961\nsquared_error = 413864465706.447\nsamples = 27\nvalue = 2580685.185"] ;
81 -> 202 ;
203 [label="squared_error = 936056250000.0\nsamples = 2\nvalue = 3767500.0"] ;
202 -> 203 ;
204 [label="squared_error = 250392182400.0\nsamples = 25\nvalue = 2485740.0"] ;
202 -> 204 ;
82 [label="squared_error = 660583215555.555\nsamples = 15\nvalue = 3259633.333"] ;
51 -> 82 ;
52 [label="x[1] <= 9.95\nsquared_error = 260960146896.552\nsamples = 145\nvalue = 2132100.0"] ;
28 -> 52 ;
101 [label="x[5] <= 659.5\nsquared_error = 278260014172.264\nsamples = 88\nvalue = 2283630.682"] ;
52 -> 101 ;
163 [label="x[9] <= 144.948\nsquared_error = 281702151068.238\nsamples = 56\nvalue = 2152651.786"] ;
101 -> 163 ;
173 [label="squared_error = 0.0\nsamples = 1\nvalue = 3705000.0"] ;
163 -> 173 ;
174 [label="squared_error = 242213112892.562\nsamples = 55\nvalue = 2124427.273"] ;
163 -> 174 ;
164 [label="x[8] <= -37.858\nsquared_error = 189675569335.938\nsamples = 32\nvalue = 2512843.75"] ;
101 -> 164 ;
193 [label="squared_error = 116752222222.221\nsamples = 6\nvalue = 3034333.333"] ;
164 -> 193 ;
194 [label="squared_error = 129263403846.154\nsamples = 26\nvalue = 2392500.0"] ;
164 -> 194 ;
102 [label="x[8] <= -37.823\nsquared_error = 144073264542.937\nsamples = 57\nvalue = 1898157.895"] ;
52 -> 102 ;
215 [label="x[5] <= 341.0\nsquared_error = 110755677009.58\nsamples = 49\nvalue = 1825918.367"] ;
102 -> 215 ;
261 [label="squared_error = 9050000000.0\nsamples = 4\nvalue = 1340000.0"] ;
215 -> 261 ;
262 [label="squared_error = 96942420987.655\nsamples = 45\nvalue = 1869111.111"] ;
215 -> 262 ;
216 [label="squared_error = 120402734375.0\nsamples = 8\nvalue = 2340625.0"] ;
102 -> 216 ;
14 [label="x[1] <= 6.35\nsquared_error = 1352905881198.123\nsamples = 187\nvalue = 2992876.406"] ;
7 -> 14 ;
17 [label="x[8] <= -37.825\nsquared_error = 1756385570387.52\nsamples = 54\nvalue = 3840787.037"] ;
14 -> 17 ;
33 [label="x[5] <= 1590.5\nsquared_error = 1642697354595.344\nsamples = 27\nvalue = 4457314.815"] ;
17 -> 33 ;
59 [label="x[6] <= 295.5\nsquared_error = 1298751624630.176\nsamples = 26\nvalue = 4334519.231"] ;
33 -> 59 ;
63 [label="squared_error = 991071888888.889\nsamples = 9\nvalue = 3503500.0"] ;
59 -> 63 ;
64 [label="squared_error = 902475660899.652\nsamples = 17\nvalue = 4774470.588"] ;
59 -> 64 ;
60 [label="squared_error = 0.0\nsamples = 1\nvalue = 7650000.0"] ;
33 -> 60 ;
34 [label="x[3] <= 5.5\nsquared_error = 1109860784636.486\nsamples = 27\nvalue = 3224259.259"] ;
17 -> 34 ;
57 [label="x[3] <= 3.5\nsquared_error = 723963581360.947\nsamples = 26\nvalue = 3098269.231"] ;
34 -> 57 ;
91 [label="x[8] <= -37.802\nsquared_error = 390083141274.24\nsamples = 19\nvalue = 2810263.158"] ;
57 -> 91 ;
211 [label="squared_error = 310227984375.0\nsamples = 16\nvalue = 2675875.0"] ;
91 -> 211 ;
212 [label="squared_error = 205944666666.666\nsamples = 3\nvalue = 3527000.0"] ;
91 -> 212 ;
92 [label="squared_error = 793964285714.285\nsamples = 7\nvalue = 3880000.0"] ;
57 -> 92 ;
58 [label="squared_error = 0.0\nsamples = 1\nvalue = 6500000.0"] ;
34 -> 58 ;
18 [label="x[5] <= 2065.0\nsquared_error = 778663536135.215\nsamples = 133\nvalue = 2648611.94"] ;
14 -> 18 ;
23 [label="x[5] <= 777.5\nsquared_error = 565969291536.804\nsamples = 132\nvalue = 2608071.121"] ;
18 -> 23 ;
39 [label="x[0] <= 3.5\nsquared_error = 468770122373.991\nsamples = 94\nvalue = 2396344.553"] ;
23 -> 39 ;
67 [label="squared_error = 466527609467.456\nsamples = 13\nvalue = 1650076.923"] ;
39 -> 67 ;
68 [label="x[6] <= 308.5\nsquared_error = 365403375981.026\nsamples = 81\nvalue = 2516115.901"] ;
39 -> 68 ;
85 [label="squared_error = 193457908163.265\nsamples = 28\nvalue = 2122142.857"] ;
68 -> 85 ;
86 [label="squared_error = 330921353824.238\nsamples = 53\nvalue = 2724252.604"] ;
68 -> 86 ;
40 [label="x[6] <= 326.5\nsquared_error = 421210202908.588\nsamples = 38\nvalue = 3131815.789"] ;
23 -> 40 ;
113 [label="x[9] <= 145.012\nsquared_error = 323327460317.46\nsamples = 21\nvalue = 2830333.333"] ;
40 -> 113 ;
151 [label="squared_error = 88512500000.0\nsamples = 4\nvalue = 3600000.0"] ;
113 -> 151 ;
152 [label="squared_error = 206396415224.912\nsamples = 17\nvalue = 2649235.294"] ;
113 -> 152 ;
114 [label="squared_error = 291149944636.678\nsamples = 17\nvalue = 3504235.294"] ;
40 -> 114 ;
24 [label="squared_error = 0.0\nsamples = 1\nvalue = 8000000.0"] ;
18 -> 24 ;
8 [label="x[5] <= 552.5\nsquared_error = 331933110197.78\nsamples = 254\nvalue = 1612645.669"] ;
5 -> 8 ;
37 [label="x[1] <= 6.15\nsquared_error = 218723887891.383\nsamples = 101\nvalue = 1314262.376"] ;
8 -> 37 ;
83 [label="x[9] <= 144.97\nsquared_error = 313256551508.845\nsamples = 31\nvalue = 1701354.839"] ;
37 -> 83 ;
133 [label="squared_error = 124682089965.398\nsamples = 17\nvalue = 1404294.118"] ;
83 -> 133 ;
134 [label="squared_error = 304968637755.102\nsamples = 14\nvalue = 2062071.429"] ;
83 -> 134 ;
84 [label="x[3] <= 1.5\nsquared_error = 81114353438.775\nsamples = 70\nvalue = 1142835.714"] ;
37 -> 84 ;
269 [label="squared_error = 37135000000.0\nsamples = 8\nvalue = 822000.0"] ;
84 -> 269 ;
270 [label="x[6] <= 246.5\nsquared_error = 71793294175.338\nsamples = 62\nvalue = 1184233.871"] ;
84 -> 270 ;
275 [label="squared_error = 34906601210.938\nsamples = 32\nvalue = 1068943.75"] ;
270 -> 275 ;
276 [label="x[8] <= -37.732\nsquared_error = 81838038900.0\nsamples = 30\nvalue = 1307210.0"] ;
270 -> 276 ;
283 [label="x[7] <= 2015.5\nsquared_error = 64530455296.0\nsamples = 25\nvalue = 1379952.0"] ;
276 -> 283 ;
327 [label="squared_error = 46552286666.667\nsamples = 24\nvalue = 1351200.0"] ;
283 -> 327 ;
328 [label="squared_error = 0.0\nsamples = 1\nvalue = 2070000.0"] ;
283 -> 328 ;
284 [label="squared_error = 9634000000.0\nsamples = 5\nvalue = 943500.0"] ;
276 -> 284 ;
38 [label="x[1] <= 10.35\nsquared_error = 309094888119.954\nsamples = 153\nvalue = 1809617.647"] ;
8 -> 38 ;
49 [label="x[6] <= 319.0\nsquared_error = 259163111039.371\nsamples = 132\nvalue = 1919473.485"] ;
38 -> 49 ;
77 [label="x[8] <= -37.749\nsquared_error = 145998881083.563\nsamples = 99\nvalue = 1780651.515"] ;
49 -> 77 ;
149 [label="x[9] <= 144.907\nsquared_error = 127739586514.733\nsamples = 83\nvalue = 1857259.036"] ;
77 -> 149 ;
181 [label="x[1] <= 7.75\nsquared_error = 158176333333.334\nsamples = 18\nvalue = 1540666.667"] ;
149 -> 181 ;
249 [label="squared_error = 75112244897.959\nsamples = 7\nvalue = 1873571.429"] ;
181 -> 249 ;
250 [label="squared_error = 95630148760.331\nsamples = 11\nvalue = 1328818.182"] ;
181 -> 250 ;
182 [label="x[5] <= 738.0\nsquared_error = 83868414437.87\nsamples = 65\nvalue = 1944930.769"] ;
149 -> 182 ;
281 [label="squared_error = 85828902636.055\nsamples = 42\nvalue = 1862678.571"] ;
182 -> 281 ;
282 [label="squared_error = 45374200378.072\nsamples = 23\nvalue = 2095130.435"] ;
182 -> 282 ;
150 [label="squared_error = 52347062500.0\nsamples = 16\nvalue = 1383250.0"] ;
77 -> 150 ;
78 [label="x[3] <= 3.5\nsquared_error = 367397329660.238\nsamples = 33\nvalue = 2335939.394"] ;
49 -> 78 ;
125 [label="x[8] <= -37.761\nsquared_error = 195380532544.379\nsamples = 26\nvalue = 2162923.077"] ;
78 -> 125 ;
209 [label="x[7] <= 2011.5\nsquared_error = 82797608024.691\nsamples = 18\nvalue = 2343055.556"] ;
125 -> 209 ;
311 [label="squared_error = 54703027343.75\nsamples = 16\nvalue = 2407812.5"] ;
209 -> 311 ;
312 [label="squared_error = 5625000000.0\nsamples = 2\nvalue = 1825000.0"] ;
209 -> 312 ;
210 [label="squared_error = 211418234375.0\nsamples = 8\nvalue = 1757625.0"] ;
125 -> 210 ;
126 [label="squared_error = 482155102040.816\nsamples = 7\nvalue = 2978571.429"] ;
78 -> 126 ;
50 [label="x[8] <= -37.732\nsquared_error = 70272657596.372\nsamples = 21\nvalue = 1119095.238"] ;
38 -> 50 ;
335 [label="squared_error = 57834428571.428\nsamples = 14\nvalue = 1225000.0"] ;
50 -> 335 ;
336 [label="squared_error = 27854204081.633\nsamples = 7\nvalue = 907285.714"] ;
50 -> 336 ;
6 [label="x[8] <= -37.751\nsquared_error = 342876427637.802\nsamples = 406\nvalue = 1307790.926"] ;
2 -> 6 ;
21 [label="x[7] <= 1929.0\nsquared_error = 348340713977.376\nsamples = 276\nvalue = 1514096.978"] ;
6 -> 21 ;
45 [label="x[5] <= 817.5\nsquared_error = 375896381701.324\nsamples = 23\nvalue = 2236321.739"] ;
21 -> 45 ;
129 [label="x[8] <= -37.908\nsquared_error = 179323800987.655\nsamples = 18\nvalue = 2027911.111"] ;
45 -> 129 ;
229 [label="squared_error = 155285250000.0\nsamples = 10\nvalue = 2283500.0"] ;
129 -> 229 ;
230 [label="squared_error = 25643514375.0\nsamples = 8\nvalue = 1708425.0"] ;
129 -> 230 ;
130 [label="squared_error = 364274240000.0\nsamples = 5\nvalue = 2986600.0"] ;
45 -> 130 ;
46 [label="x[3] <= 2.5\nsquared_error = 294105874245.801\nsamples = 253\nvalue = 1448440.182"] ;
21 -> 46 ;
53 [label="x[9] <= 144.843\nsquared_error = 192970845184.402\nsamples = 157\nvalue = 1281978.076"] ;
46 -> 53 ;
95 [label="squared_error = 15247493333.333\nsamples = 15\nvalue = 700800.0"] ;
53 -> 95 ;
96 [label="x[1] <= 21.85\nsquared_error = 172295741128.801\nsamples = 142\nvalue = 1343370.127"] ;
53 -> 96 ;
105 [label="x[5] <= 1357.0\nsquared_error = 157631747276.674\nsamples = 115\nvalue = 1434725.113"] ;
96 -> 105 ;
115 [label="x[0] <= 2.5\nsquared_error = 122225917761.526\nsamples = 113\nvalue = 1409136.177"] ;
105 -> 115 ;
183 [label="squared_error = 6224240000.0\nsamples = 5\nvalue = 760400.0"] ;
115 -> 183 ;
184 [label="squared_error = 107210123998.303\nsamples = 108\nvalue = 1439170.259"] ;
115 -> 184 ;
116 [label="squared_error = 30800250000.0\nsamples = 2\nvalue = 2880500.0"] ;
105 -> 116 ;
106 [label="x[9] <= 145.344\nsquared_error = 47804482623.506\nsamples = 27\nvalue = 954265.556"] ;
96 -> 106 ;
339 [label="x[6] <= 226.5\nsquared_error = 32998602756.826\nsamples = 24\nvalue = 1000694.583"] ;
106 -> 339 ;
367 [label="squared_error = 11999257847.938\nsamples = 8\nvalue = 833872.75"] ;
339 -> 367 ;
368 [label="squared_error = 22626132153.75\nsamples = 16\nvalue = 1084105.5"] ;
339 -> 368 ;
340 [label="squared_error = 11044388888.889\nsamples = 3\nvalue = 582833.333"] ;
106 -> 340 ;
54 [label="x[9] <= 145.031\nsquared_error = 340075149888.16\nsamples = 96\nvalue = 1720675.083"] ;
46 -> 54 ;
73 [label="x[6] <= 387.0\nsquared_error = 480320198400.0\nsamples = 25\nvalue = 2199960.0"] ;
54 -> 73 ;
111 [label="x[10] <= 5410.0\nsquared_error = 328352896030.246\nsamples = 23\nvalue = 2076130.435"] ;
73 -> 111 ;
195 [label="squared_error = 141613859375.0\nsamples = 8\nvalue = 1673875.0"] ;
111 -> 195 ;
196 [label="squared_error = 295622888888.89\nsamples = 15\nvalue = 2290666.667"] ;
111 -> 196 ;
112 [label="squared_error = 23716000000.0\nsamples = 2\nvalue = 3624000.0"] ;
73 -> 112 ;
74 [label="x[9] <= 145.174\nsquared_error = 181327156169.744\nsamples = 71\nvalue = 1551912.789"] ;
54 -> 74 ;
127 [label="x[6] <= 356.5\nsquared_error = 156129612515.702\nsamples = 55\nvalue = 1674505.455"] ;
74 -> 127 ;
155 [label="x[5] <= 912.0\nsquared_error = 112040035980.247\nsamples = 45\nvalue = 1568195.556"] ;
127 -> 155 ;
235 [label="squared_error = 82367117435.897\nsamples = 39\nvalue = 1500200.0"] ;
155 -> 235 ;
236 [label="squared_error = 79523472222.222\nsamples = 6\nvalue = 2010166.667"] ;
155 -> 236 ;
156 [label="squared_error = 74813290000.0\nsamples = 10\nvalue = 2152900.0"] ;
127 -> 156 ;
128 [label="squared_error = 38693339503.75\nsamples = 16\nvalue = 1130500.5"] ;
74 -> 128 ;
22 [label="x[8] <= -37.706\nsquared_error = 49065360319.675\nsamples = 130\nvalue = 869787.308"] ;
6 -> 22 ;
245 [label="x[9] <= 144.87\nsquared_error = 52476112737.812\nsamples = 58\nvalue = 980939.655"] ;
22 -> 245 ;
297 [label="squared_error = 27502028888.889\nsamples = 15\nvalue = 795766.667"] ;
245 -> 297 ;
298 [label="x[8] <= -37.72\nsquared_error = 45054167387.777\nsamples = 43\nvalue = 1045534.884"] ;
245 -> 298 ;
321 [label="x[6] <= 294.0\nsquared_error = 41019338842.975\nsamples = 22\nvalue = 1156045.455"] ;
298 -> 321 ;
345 [label="squared_error = 22093052500.0\nsamples = 20\nvalue = 1110650.0"] ;
321 -> 345 ;
346 [label="squared_error = 3600000000.0\nsamples = 2\nvalue = 1610000.0"] ;
321 -> 346 ;
322 [label="squared_error = 23083609977.324\nsamples = 21\nvalue = 929761.905"] ;
298 -> 322 ;
246 [label="x[6] <= 259.0\nsquared_error = 28347993710.938\nsamples = 72\nvalue = 780247.917"] ;
22 -> 246 ;
319 [label="squared_error = 13497853237.345\nsamples = 44\nvalue = 710326.136"] ;
246 -> 319 ;
320 [label="x[10] <= 993.0\nsquared_error = 31928154017.857\nsamples = 28\nvalue = 890125.0"] ;
246 -> 320 ;
389 [label="squared_error = 0.0\nsamples = 1\nvalue = 1387000.0"] ;
320 -> 389 ;
390 [label="squared_error = 23628135802.469\nsamples = 27\nvalue = 871722.222"] ;
320 -> 390 ;
}
